digraph Tree {
node [shape=box, style="filled", color="black"] ;
0 [label="isMale <= -0.309\ngini = 0.473\nsamples = 891\nvalue = [549, 342]\nclass = Age", fillcolor="#e5813960"] ;
1 [label="Pclass_3 <= -0.103\ngini = 0.383\nsamples = 314\nvalue = [81, 233]\nclass = SibSp", fillcolor="#399de5a6"] ;
0 -> 1 [labeldistance=2.5, labelangle=45, headlabel="True"] ;
3 [label="gini = 0.1\nsamples = 170\nvalue = [9, 161]\nclass = SibSp", fillcolor="#399de5f1"] ;
1 -> 3 ;
4 [label="Fare <= -0.178\ngini = 0.5\nsamples = 144\nvalue = [72, 72]\nclass = Age", fillcolor="#e5813900"] ;
1 -> 4 ;
9 [label="gini = 0.484\nsamples = 117\nvalue = [48, 69]\nclass = SibSp", fillcolor="#399de54e"] ;
4 -> 9 ;
10 [label="gini = 0.198\nsamples = 27\nvalue = [24, 3]\nclass = Age", fillcolor="#e58139df"] ;
4 -> 10 ;
2 [label="Age <= -1.785\ngini = 0.306\nsamples = 577\nvalue = [468, 109]\nclass = Age", fillcolor="#e58139c4"] ;
0 -> 2 [labeldistance=2.5, labelangle=-45, headlabel="False"] ;
5 [label="gini = 0.444\nsamples = 24\nvalue = [8, 16]\nclass = SibSp", fillcolor="#399de57f"] ;
2 -> 5 ;
6 [label="Pclass_1 <= 0.601\ngini = 0.28\nsamples = 553\nvalue = [460, 93]\nclass = Age", fillcolor="#e58139cb"] ;
2 -> 6 ;
7 [label="gini = 0.204\nsamples = 433\nvalue = [383, 50]\nclass = Age", fillcolor="#e58139de"] ;
6 -> 7 ;
8 [label="gini = 0.46\nsamples = 120\nvalue = [77, 43]\nclass = Age", fillcolor="#e5813971"] ;
6 -> 8 ;
}